%YAML:1.0
opencv_ml_svm:
   format: 3
   svmType: C_SVC
   kernel:
      type: LINEAR
   C: 1.
   term_criteria: { epsilon:1.1920928955078125e-07, iterations:1000 }
   var_count: 144
   class_count: 2
   class_labels: !!opencv-matrix
      rows: 2
      cols: 1
      dt: i
      data: [ 1, 2 ]
   sv_total: 1
   support_vectors:
      - [ -2.07362491e-12, -5.11786030e-11, -1.53942987e-11,
          -3.31720658e-11, -2.20735392e-11, 5.14545351e-11,
          -5.15901766e-11, 2.47418856e-11, -1.85680554e-10,
          -2.58695114e-11, -1.20979740e-10, -1.19045690e-10,
          -9.43476894e-11, 1.32147982e-11, -6.15927101e-11,
          -2.97698220e-11, 2.30286901e-11, 0., 5.16322159e-11,
          8.91488619e-12, -1.87952223e-11, -9.51563828e-11,
          -7.20330531e-11, 3.30882825e-12, 3.53113476e-11,
          -3.40671276e-11, -8.24934634e-11, -1.27770197e-10,
          1.33435540e-10, -2.40355756e-11, -4.75051144e-11,
          -4.57348465e-11, 2.23503559e-11, -1.27183139e-10,
          -1.05865481e-11, -3.13250363e-11, -9.66948743e-09,
          -7.78285614e-09, -7.16038562e-09, -8.97003183e-09,
          -1.00434301e-08, -8.19469381e-09, -5.95855676e-09,
          -4.19608703e-09, -2.11819895e-09, -8.34162339e-09,
          -1.52576451e-09, -1.17036381e-09, -2.47428433e-09,
          -2.38037234e-09, -5.56681767e-09, -9.19310672e-09,
          -1.93748502e-08, -2.52133283e-08, -2.86853030e-08,
          -1.96392076e-08, -1.33058080e-08, -8.87414053e-09,
          -8.95053631e-09, -8.25897484e-09, -4.01176692e-09,
          -1.37225209e-09, -4.53907534e-09, -1.09618048e-09,
          -2.38957021e-10, -1.85165949e-09, -1.26970878e-09,
          -2.94493985e-09, -4.51244997e-09, -5.05166620e-09,
          -6.01479355e-09, -9.09915077e-09, -3.69461439e-09,
          -3.10131831e-09, -3.19768834e-09, -4.62384708e-09,
          -5.22614085e-09, -5.17354692e-09, -4.69715067e-09,
          -1.53985413e-09, -8.95992794e-11, -7.81412851e-11,
          -7.65865583e-12, -1.41103873e-09, -9.98015337e-10,
          6.71960598e-10, -3.00105496e-10, -3.04607450e-10,
          -1.14988574e-09, -1.95515404e-09, -4.32125580e-09,
          -2.74618750e-09, -3.23600946e-09, -4.78517403e-09,
          -5.47873258e-09, -5.61388180e-09, -4.24748459e-09,
          -1.48303114e-09, -1.18204380e-09, -1.99884531e-09,
          -2.63937983e-10, 2.34395281e-10, -1.26937938e-09,
          -5.11617138e-10, -9.69350156e-10, -3.17267851e-10,
          3.41654288e-10, -7.80943421e-10, 3.76106613e-07,
          -1.53153252e-07, -3.33430734e-07, -4.32330353e-07,
          -5.86680358e-07, -5.91525918e-07, -4.63882003e-07,
          -3.79126845e-07, 2.41996446e-07, 2.77021400e-07,
          -5.26338511e-07, -3.36633661e-07, -2.25905538e-07,
          -2.67689302e-07, -3.17787851e-07, -2.65159088e-07,
          -3.73757928e-07, 7.48331274e-07, 6.58042723e-07,
          -9.69366880e-08, -2.15233030e-07, -4.20998020e-07,
          -5.47622562e-07, -4.59109799e-07, -4.49570081e-07,
          -3.42561805e-07, 8.07670290e-07, 2.05576072e-07,
          -3.32621511e-07, -2.93551977e-07, -1.38461019e-07,
          -8.53010604e-08, -2.07498857e-07, -1.94957437e-07,
          -1.37531714e-07, 3.96968886e-07 ]
   uncompressed_sv_total: 5
   uncompressed_support_vectors:
      - [ 6.50710678e+01, 5.09901953e+00, 0., 10., 1.83847752e+01,
          4.60845375e+01, 2.15441628e+01, 3.93141861e+01, 3.42428818e+01,
          1.10189430e+02, 9.48683357e+00, 3.13200054e+01, 0.,
          1.83847771e+01, 1.42126703e+01, 4.47213602e+00, 2.21359444e+01,
          0., 22., 2.08953209e+01, 0., 1.72111015e+01, 8.48528099e+00,
          0., 4.47213602e+00, 1.01980391e+01, 4.21421356e+01,
          1.10453606e+01, 2.40726852e+01, 4.52561989e+01, 4.02668571e+01,
          1.27279215e+01, 8.60232544e+00, 1.65551815e+01, 1.26491108e+01,
          0., 1.83086450e+03, 1.71380237e+03, 1.40806555e+03,
          1.46703137e+03, 1.91837683e+03, 2.10046997e+03, 2.17781787e+03,
          2.83166846e+03, 2.53483179e+03, 7.87418311e+03, 3.17094434e+03,
          2.97784595e+03, 2.49692969e+03, 2.35821777e+03, 2.21640503e+03,
          1.78210986e+03, 2.93225659e+03, 1.36706885e+03, 3.06306348e+03,
          2.80608203e+03, 2.28204028e+03, 2.17395654e+03, 2.66713599e+03,
          2.41968555e+03, 2.84774707e+03, 3.43062695e+03, 7.92434473e+03,
          2.47857690e+03, 3.10157446e+03, 2.21874609e+03, 2.30214795e+03,
          1.84889819e+03, 1.64445557e+03, 1.54679077e+03, 1.82313599e+03,
          9.36074829e+02, 3.97084888e+03, 1.03876343e+03, 1.17812061e+03,
          1.36498499e+03, 1.59604517e+03, 1.67598145e+03, 1.77859741e+03,
          2.27902148e+03, 2.27398389e+03, 3.52796777e+03, 2.83150073e+03,
          2.10437183e+03, 1.98296448e+03, 2.30856152e+03, 1.67083960e+03,
          1.50319800e+03, 1.30719604e+03, 6.48296448e+02, 3.58367773e+03,
          1.25675049e+03, 1.10228357e+03, 1.39984619e+03, 1.52067163e+03,
          1.26040942e+03, 1.77020398e+03, 2.78128613e+03, 3.30112451e+03,
          2.27524951e+03, 3.10511963e+03, 2.61940552e+03, 1.98078857e+03,
          1.89167712e+03, 1.60799976e+03, 1.62003015e+03, 1.55933313e+03,
          8.46798096e+02, 1.65296763e+06, 8.66089438e+05, 6.90432688e+05,
          6.48850188e+05, 6.66617250e+05, 7.22673375e+05, 7.80290313e+05,
          9.58880125e+05, 2.38786525e+06, 2562666., 8.74802875e+05,
          6.96657625e+05, 6.77009813e+05, 6.06639625e+05, 5.70329938e+05,
          5.92945250e+05, 7.07784500e+05, 1.41163788e+06, 1.74680088e+06,
          8.66458875e+05, 6.78385313e+05, 6.12258313e+05, 6.61479375e+05,
          776716., 8.29003563e+05, 1.04047181e+06, 2.61629925e+06,
          2205766., 9.17560375e+05, 7.18270375e+05, 6.42230125e+05,
          6.40740813e+05, 5.95816750e+05, 6.13956563e+05, 814401.,
          1.40522063e+06 ]
      - [ 4.01655273e+01, 8.26129723e+00, 3.44665871e+01, 1.58134279e+01,
          1.13137083e+01, 4.72378998e+01, 4.47213602e+00, 3.25576401e+01,
          0., 8.81264496e+01, 2.23606796e+01, 7.61577320e+00, 0.,
          2.12132034e+01, 0., 3.73363075e+01, 6.32455540e+00, 0.,
          1.00165527e+02, 7.22859879e+01, 2.10237961e+01, 1.28062487e+01,
          2.82842708e+00, 1.30587662e+02, 9.54402008e+01, 1.01661636e+02,
          1.71156128e+02, 1.61245155e+01, 1.69940506e+02, 4.38697739e+01,
          7.21110249e+00, 7.07106781e+00, 2.14514503e+01, 4.07792015e+01,
          1.89736671e+01, 9.05538559e+00, 1.54976794e+03, 1.19392004e+03,
          8.32490051e+02, 1.03424231e+03, 1.72963745e+03, 1.47793579e+03,
          2.14381787e+03, 3.33982520e+03, 2.71200781e+03, 7.69733350e+03,
          3.67783252e+03, 2.61030005e+03, 1.78343274e+03, 2.00870874e+03,
          1.06644495e+03, 1.30741882e+03, 2.35050732e+03, 1.71742334e+03,
          3.05926587e+03, 2.05228052e+03, 9.90207153e+02, 1.47556311e+03,
          1.85986121e+03, 1.52877332e+03, 2.08474390e+03, 3.05708032e+03,
          7.66496143e+03, 2.65646680e+03, 3.44791333e+03, 2.35233301e+03,
          1.47105273e+03, 1.74258777e+03, 1.14929309e+03, 9.79873108e+02,
          1.32696448e+03, 4.46817688e+02, 2.66089551e+03, 7.24312317e+02,
          5.86361572e+02, 6.41087402e+02, 1.32104736e+03, 1.19802039e+03,
          1.37299524e+03, 2.26959912e+03, 2.35988574e+03, 4.31846045e+03,
          3.25169604e+03, 2.03327100e+03, 1.82348303e+03, 1.69451746e+03,
          8.97434021e+02, 7.97932495e+02, 7.53315186e+02, 2.10813416e+02,
          2.57184399e+03, 7.14739868e+02, 6.51702271e+02, 7.91797363e+02,
          1.23053772e+03, 9.92021729e+02, 1.33554297e+03, 2.15283740e+03,
          2.99059692e+03, 1.66463354e+03, 2.77101440e+03, 2.38885571e+03,
          2.00207568e+03, 1.66649646e+03, 1.11120227e+03, 9.31151550e+02,
          1.08917139e+03, 5.23234558e+02, 1.46600538e+06, 7.71552750e+05,
          6.09485125e+05, 5.65051875e+05, 562093., 5.72720563e+05,
          6.68316250e+05, 8.96783563e+05, 2.00884750e+06, 2.45217125e+06,
          9.71761313e+05, 8.27458625e+05, 8.15446813e+05, 7.81881063e+05,
          7.51658438e+05, 7.93179750e+05, 1.04812938e+06, 2048650.,
          1.51382725e+06, 8.19038625e+05, 5.92321750e+05, 5.07032313e+05,
          5.38150563e+05, 5.87091938e+05, 6.73119250e+05, 9.35677688e+05,
          1.98259363e+06, 2.24515575e+06, 9.40188563e+05, 8.30473625e+05,
          8.14731625e+05, 8.44073188e+05, 7.94865313e+05, 7.99574625e+05,
          1.04442963e+06, 2.27084525e+06 ]
      - [ 22., 1.26491108e+01, 2.68556747e+01, 5.83095169e+00,
          7.07106781e+00, 8.60232544e+00, 3.31310081e+01, 4.88001747e+01,
          1.81107712e+01, 3.90710678e+01, 1.65225945e+01, 4.47213602e+00,
          7.21110249e+00, 1.27279215e+01, 0., 0., 0., 0., 24.,
          5.09901953e+00, 0., 3.44222031e+01, 1.41421356e+01,
          3.28035088e+01, 2.99993134e+01, 1.12180664e+02, 1.04225266e+02,
          3.31391525e+01, 0., 3.99630585e+01, 6.07677383e+01,
          3.82425919e+01, 1.30420542e+01, 5.28285027e+01, 2.91530533e+01,
          0., 5.31160059e+03, 4.07876758e+03, 1.67447705e+03,
          1.59677429e+03, 1.12358118e+03, 9.40393555e+02, 1.15348181e+03,
          1.53678992e+03, 1.25892346e+03, 5.30234717e+03, 1.79098401e+03,
          1.96385571e+03, 2.77268726e+03, 3.65166406e+03, 6.25944092e+03,
          9.81610938e+03, 2.04486250e+04, 2.54974004e+04, 3.24140684e+04,
          2.02362793e+04, 1.16626426e+04, 6.74133594e+03, 4.26193652e+03,
          2.93482153e+03, 2.10171509e+03, 1.78142664e+03, 5.02354932e+03,
          1.02574292e+03, 1.37189075e+03, 1.12964600e+03, 1.11419519e+03,
          1.41252893e+03, 1.33569653e+03, 1.99336621e+03, 3.24729688e+03,
          5.46789502e+03, 3.78758813e+03, 1.30958252e+03, 1.03877271e+03,
          1.63693701e+03, 1.92033350e+03, 1.85295410e+03, 2.89274609e+03,
          2.59501465e+03, 1.86519751e+03, 3.48300171e+03, 2.61079321e+03,
          2.18389966e+03, 1.95431458e+03, 1.70085364e+03, 1.37351282e+03,
          1.28409631e+03, 1.13176782e+03, 7.43354980e+02, 3.81858838e+03,
          1.32299133e+03, 1.41807629e+03, 1.41080286e+03, 1.70794995e+03,
          2.27156250e+03, 2.37778418e+03, 3.33847876e+03, 4.53071240e+03,
          2.82696899e+03, 3.50342017e+03, 2.84001001e+03, 2.52829541e+03,
          2.16213818e+03, 1.85675806e+03, 1.50644202e+03, 9.44535645e+02,
          7.20728699e+02, 1486645., 8.74651188e+05, 8.16180563e+05,
          8.36282375e+05, 9.01357563e+05, 9.37797875e+05, 9.20698563e+05,
          1.01354250e+06, 2004445., 2.14786475e+06, 8.91639313e+05,
          7.05581063e+05, 6.78664313e+05, 6.55946625e+05, 6.52233938e+05,
          6.55593750e+05, 7.84754188e+05, 1.22147438e+06, 1437814.,
          9.01904188e+05, 7.53727438e+05, 7.70891750e+05, 8.87615250e+05,
          9.64556438e+05, 1.00977413e+06, 1.13984088e+06, 2238040.,
          1.86603138e+06, 8.91730563e+05, 7.51795250e+05, 6.75540563e+05,
          6.51820688e+05, 6.86335125e+05, 6.84810063e+05, 8.30488313e+05,
          1.45327038e+06 ]
      - [ 5.30553856e+01, 2.40726852e+01, 1.34164076e+01, 3.98331680e+01,
          3.53553391e+01, 3.00389557e+01, 3.89718323e+01, 1.77263107e+01,
          1.46792114e+02, 1.48692307e+02, 9.35778732e+01, 1.03648308e+02,
          4.33238068e+01, 1.98533020e+01, 1.16619034e+01, 2.54994545e+01,
          9.48683262e+00, 0., 1.50553856e+01, 5.09901953e+00, 0., 0.,
          1.41421356e+01, 1.30384045e+01, 0., 3.03716087e+01,
          1.10329712e+02, 6.63774033e+01, 3.37550964e+01, 6.59926758e+01,
          4.14637451e+01, 4.24264050e+00, 0., 8.28351517e+01, 0.,
          2.30217285e+01, 3.81012891e+03, 2.39906470e+03, 2.01007788e+03,
          2.19730688e+03, 2.70160376e+03, 2.44460449e+03, 2.65254102e+03,
          4.33368750e+03, 3.52251953e+03, 1.06036816e+04, 4.63723242e+03,
          3.36987646e+03, 2.93739673e+03, 2.34601953e+03, 2.36626807e+03,
          2.30939478e+03, 5.23698145e+03, 4.28704492e+03, 5.31570166e+03,
          4.16008252e+03, 2.47932642e+03, 1.48038391e+03, 1.71916687e+03,
          1.73936206e+03, 1.91750977e+03, 2.79412231e+03, 8.14634375e+03,
          2.97233154e+03, 3.84927832e+03, 3.05139868e+03, 2.47576025e+03,
          2.93948096e+03, 3.09646851e+03, 2.81663403e+03, 3.14570313e+03,
          2.30708008e+03, 2.98126514e+03, 9.48269165e+02, 7.71480164e+02,
          9.89344910e+02, 1.16708154e+03, 1.66008704e+03, 1.79450964e+03,
          2.09037036e+03, 1.93609021e+03, 3.74250903e+03, 3.06790845e+03,
          2.61979907e+03, 2.23025195e+03, 1.62012939e+03, 1.23493396e+03,
          9.89878174e+02, 9.88616028e+02, 6.59900818e+02, 2.79357593e+03,
          1.05798694e+03, 9.31175049e+02, 8.22186157e+02, 1.03828613e+03,
          1.37497229e+03, 1.68938135e+03, 2.23759741e+03, 3.01536206e+03,
          2.66252539e+03, 2.91747461e+03, 2.18212451e+03, 2.13399390e+03,
          1.64877783e+03, 1.24335022e+03, 8.77708923e+02, 8.53687927e+02,
          5.46698547e+02, 8.23646250e+05, 4.98295781e+05, 4.71116563e+05,
          4.89620719e+05, 5.47159125e+05, 5.93344625e+05, 6.67866250e+05,
          8.82818688e+05, 1.73746825e+06, 2142280., 1.04651869e+06,
          8.27714688e+05, 7.38621063e+05, 6.52279938e+05, 6.03392563e+05,
          5.89487313e+05, 7.32728188e+05, 8.90290063e+05, 7.58747125e+05,
          4.79601844e+05, 4.29825781e+05, 4.52317781e+05, 5.12463125e+05,
          5.82292188e+05, 6.65730688e+05, 8.65872063e+05, 1.47820788e+06,
          1.86373213e+06, 9.34473438e+05, 7.71467063e+05, 6.47797500e+05,
          6.22951875e+05, 5.82980438e+05, 5.61482875e+05, 6.92643563e+05,
          1.14830738e+06 ]
      - [ 1.25838135e+02, 4.37241478e+01, 1.92353840e+01, 0.,
          1.13137083e+01, 5.63234711e+01, 1.47648230e+01, 2.86356430e+01,
          0., 1.05460320e+02, 0., 3.23144913e+01, 4.16589279e+01,
          1.41421354e+00, 1.44053879e+02, 7.69441223e+01, 1.77330437e+01,
          0., 1.06265488e+02, 1.94576294e+02, 8.58836441e+01,
          2.35808563e+02, 1.18841026e+02, 1.83832733e+02, 104.,
          4.74341660e+01, 1.70247940e+02, 6.93542633e+01, 7.42826309e+01,
          3.23363647e+01, 2.88518333e+01, 8.20748291e+01, 1.14017544e+01,
          5.59674072e+01, 6.35701447e+01, 9.05538559e+00, 9.12512793e+03,
          1.06831074e+04, 1.27072744e+04, 1.66768867e+04, 2.12762910e+04,
          1.86902852e+04, 1.47183721e+04, 9.90207910e+03, 6.19684668e+03,
          2.01564512e+04, 4.89809375e+03, 4.99695850e+03, 4.18537646e+03,
          4.47313818e+03, 4.14439307e+03, 4.93065430e+03, 5.54990820e+03,
          5.26936572e+03, 7.02600391e+03, 8.90656641e+03, 1.11153115e+04,
          1.39751084e+04, 2.01662129e+04, 1.91833535e+04, 1.39105801e+04,
          1.03384365e+04, 2.09440488e+04, 5.93683008e+03, 4.74789941e+03,
          5.43173340e+03, 4.52102148e+03, 4.88301270e+03, 5.69162158e+03,
          5.91984033e+03, 6.57525635e+03, 6.85579834e+03, 1.24237373e+04,
          6.70039014e+03, 8.16212500e+03, 1.02625625e+04, 1.28396621e+04,
          1.12296963e+04, 8.83246094e+03, 5.59175342e+03, 4.45499658e+03,
          4.79911035e+03, 3.35517114e+03, 3.05848730e+03, 2.94780127e+03,
          2.84260889e+03, 2.53569653e+03, 2.65609180e+03, 3.84660767e+03,
          3.58572729e+03, 1.26517695e+04, 6.37051660e+03, 6.93936719e+03,
          1.19974590e+04, 1.36657773e+04, 1.03825996e+04, 8.97920020e+03,
          5.38882080e+03, 4.00573047e+03, 2.91322729e+03, 2.88436401e+03,
          2.70834741e+03, 3.27175220e+03, 2.82717578e+03, 3.34463525e+03,
          3.42317407e+03, 3.17320898e+03, 2.97800732e+03, 3488301.,
          2.18883325e+06, 1.73251675e+06, 1.58965725e+06, 1.67443450e+06,
          1.70566175e+06, 1.64716013e+06, 1.77938763e+06, 3.84439250e+06,
          3.82536125e+06, 1.59329513e+06, 1.24057863e+06, 1.24886838e+06,
          1.32160063e+06, 1.39162238e+06, 1.49918825e+06, 2.03311925e+06,
          3.30138750e+06, 3.65433850e+06, 2194306., 1.64225413e+06,
          1.53208363e+06, 1.65851550e+06, 1.65631975e+06, 1.67116913e+06,
          1.94387025e+06, 3.93888450e+06, 3.56413625e+06, 1.65172350e+06,
          1.34917688e+06, 1240070., 1.30987338e+06, 1.36349963e+06,
          1.49025888e+06, 1989962., 3.26146425e+06 ]
   decision_functions:
      -
         sv_count: 1
         rho: -5.1254303711984095e-01
         alpha: [ 1. ]
